digraph Tree {
node [shape=box, style="filled", color="black", fontname="helvetica"] ;
edge [fontname="helvetica"] ;
0 [label="ascites <= 1.978\ngini = 0.5\nsamples = 100\nvalue = [51, 49]", fillcolor="#fefaf7"] ;
1 [label="protime <= 56.264\ngini = 0.187\nsamples = 48\nvalue = [43, 5]", fillcolor="#e89050"] ;
0 -> 1 [labeldistance=2.5, labelangle=45, headlabel="True"] ;
2 [label="anorexia <= 1.5\ngini = 0.087\nsamples = 44\nvalue = [42, 2]", fillcolor="#e68742"] ;
1 -> 2 ;
3 [label="gini = 0.0\nsamples = 2\nvalue = [0, 2]", fillcolor="#399de5"] ;
2 -> 3 ;
4 [label="gini = 0.0\nsamples = 42\nvalue = [42, 0]", fillcolor="#e58139"] ;
2 -> 4 ;
5 [label="fatigue <= 1.478\ngini = 0.375\nsamples = 4\nvalue = [1, 3]", fillcolor="#7bbeee"] ;
1 -> 5 ;
6 [label="gini = 0.0\nsamples = 3\nvalue = [0, 3]", fillcolor="#399de5"] ;
5 -> 6 ;
7 [label="gini = 0.0\nsamples = 1\nvalue = [1, 0]", fillcolor="#e58139"] ;
5 -> 7 ;
8 [label="alk <= 236.5\ngini = 0.26\nsamples = 52\nvalue = [8, 44]", fillcolor="#5dafea"] ;
0 -> 8 [labeldistance=2.5, labelangle=-45, headlabel="False"] ;
9 [label="spiders <= 1.661\ngini = 0.211\nsamples = 50\nvalue = [6, 44]", fillcolor="#54aae9"] ;
8 -> 9 ;
10 [label="liverFirm <= 1.339\ngini = 0.48\nsamples = 15\nvalue = [6, 9]", fillcolor="#bddef6"] ;
9 -> 10 ;
11 [label="gini = 0.0\nsamples = 6\nvalue = [0, 6]", fillcolor="#399de5"] ;
10 -> 11 ;
12 [label="anorexia <= 1.5\ngini = 0.444\nsamples = 9\nvalue = [6, 3]", fillcolor="#f2c09c"] ;
10 -> 12 ;
13 [label="gini = 0.0\nsamples = 2\nvalue = [0, 2]", fillcolor="#399de5"] ;
12 -> 13 ;
14 [label="age <= 51.0\ngini = 0.245\nsamples = 7\nvalue = [6, 1]", fillcolor="#e9965a"] ;
12 -> 14 ;
15 [label="gini = 0.0\nsamples = 6\nvalue = [6, 0]", fillcolor="#e58139"] ;
14 -> 15 ;
16 [label="gini = 0.0\nsamples = 1\nvalue = [0, 1]", fillcolor="#399de5"] ;
14 -> 16 ;
17 [label="gini = 0.0\nsamples = 35\nvalue = [0, 35]", fillcolor="#399de5"] ;
9 -> 17 ;
18 [label="gini = 0.0\nsamples = 2\nvalue = [2, 0]", fillcolor="#e58139"] ;
8 -> 18 ;
}